http://dbpedia.org/resource/Apple_Inc. 0.167421 -1.309456 0.312587 -0.540834 0.511907 -0.268012 -0.668096 -0.018311 0.084785 -0.175847 1.586534 -0.029434 -0.345702 0.767754 -0.601233 1.015866 -0.663794 0.020669 1.025307 -0.293730 -1.047989 -0.851862 0.236833 0.306648 -0.211985 -1.998160 -0.198637 0.878127 0.347954 0.160643 -1.405652 -0.934662 -0.511719 -0.566399 0.549307 0.284808 -0.312687 0.715537 -0.318199 -0.953350 0.738767 0.210010 0.164627 -1.032541 -0.315682 0.647304 -0.318355 0.229268 1.908412 -0.821952 0.365082 0.991345 -0.206187 0.620678 1.011308 -0.727156 0.234543 0.270734 -0.239531 0.424348 -0.207746 0.312593 0.586460 1.367291 -1.100171 0.985827 0.497546 -0.138707 -0.736238 1.338079 -0.031038 0.691151 1.459285 -1.143295 0.727586 -0.005601 -0.042129 -0.049020 0.109858 0.248110 0.870686 -0.640617 0.660211 0.001141 0.116290 -0.660459 1.809466 -0.104350 0.158218 -0.944194 0.984662 0.992286 0.200427 -1.683985 0.047295 0.969179 0.802930 -0.142411 -0.406888 0.131794 0.617825 0.478291 -0.536204 0.485953 0.699384 0.383739 -0.639259 0.476015 0.444585 0.571164 0.626111 0.079863 -0.454131 -0.571136 -0.497316 0.750233 0.724775 0.547149 0.232088 0.558450 0.134191 0.124733 -0.110110 -0.897322 0.778768 0.399078 -0.163967 -0.398734 1.273343 0.869969 0.128558 -0.370794 -1.275984 -0.614686 -0.950147 -0.824645 -0.081875 -0.491506 -0.956615 -1.041211 0.169325 0.578265 -0.053699 -0.475454 0.336731 -0.034142 0.277224 0.641480 -0.940875 0.399099 -0.293885 -0.183022 0.537600 -0.408198 0.262412 -0.448081 0.785457 -0.175719 0.296046 -0.236026 0.144769 0.227471 0.447476 -0.669516 0.774279 0.152933 0.577717 -0.444627 1.080042 -0.538358 0.617702 -0.803944 -0.517577 0.308690 0.089173 -0.201159 -0.392705 1.138303 -0.596843 0.010098 -0.813714 0.376832 -0.280544 0.063438 0.544303 0.142407 -0.588301 0.706972 0.631499 0.234975 -0.686515 0.392471 -0.507135 0.548884 -0.100618 -0.400494 0.018705 -0.638192 0.344403 0.285302 
http://dbpedia.org/resource/Apple_Inc._litigation -0.044246 -0.163752 0.198550 0.520405 0.031333 -0.366172 -0.157071 0.169895 -0.157302 0.751862 0.311735 0.243654 -0.210755 0.042707 -0.094692 0.399604 0.126249 0.196470 0.187183 -0.611118 0.359743 -0.074888 0.370065 0.168039 -0.088749 -0.040622 0.261568 -0.138343 -0.278464 0.453266 -0.235780 -0.268458 -0.309188 -0.186208 -0.301413 0.104553 -0.151064 0.212209 0.281787 0.092446 0.345538 0.262937 0.323721 -0.239932 -0.204186 0.028547 -0.081230 -0.292709 -0.040183 -0.142297 0.516773 -0.139183 -0.087331 0.221071 -0.007841 -0.208346 -0.090026 0.480297 -0.345415 0.009636 0.041868 -0.143852 0.143509 0.517640 0.212686 0.769237 0.179863 -0.035111 -0.292489 -0.014555 0.028367 0.733002 -0.091912 -0.520727 0.238294 -0.423964 -0.207347 -0.279189 -0.128092 0.124385 -0.158107 -0.355084 -0.181472 0.178419 0.084335 -0.251359 0.408929 -0.146507 0.212079 0.007857 0.013254 0.456343 0.046980 -0.270510 0.092555 0.371106 0.313041 -0.101913 -0.211759 0.303208 0.395495 0.183160 -0.086556 0.392482 -0.144982 -0.701183 0.078856 -0.130109 -0.460995 0.183771 -0.298647 0.014730 0.021722 0.216227 0.280226 0.852057 -0.046236 -0.079160 0.358975 0.121188 0.589123 -0.116274 0.574087 0.006884 0.082922 0.089213 0.257022 -0.191345 0.350414 -0.003718 -0.105085 0.240412 0.013706 -0.371084 -0.322268 -0.210604 0.156013 -0.488678 -0.211851 -0.202304 -0.182104 -0.197109 -0.039114 0.087607 0.318501 0.001930 0.155330 0.260590 -0.248563 0.072490 -0.186519 -0.373311 -0.315384 -0.280924 0.213839 -0.325390 -0.408312 0.464987 0.279491 -0.230495 0.513919 0.045239 0.193649 -0.304302 0.289870 0.095321 0.092041 -0.317398 0.244433 0.100697 -0.272964 0.071806 -0.031515 0.059830 0.013816 -0.327673 0.013012 0.034921 -0.015828 -0.246033 0.066456 0.453030 -0.082729 -0.624048 -0.219166 0.427686 0.413408 -0.196859 0.355074 -0.258203 -0.433074 0.121997 -0.305249 0.176106 0.133433 -0.167109 -0.061718 -0.346050 -0.317306 -0.262030 
http://dbpedia.org/resource/Apple_Inc 0.028808 -0.145024 0.043200 0.084917 0.025127 0.001878 -0.162788 -0.063723 0.047334 0.058613 0.145017 0.001928 -0.043998 0.084474 0.072711 -0.013670 -0.037818 -0.024356 0.007893 -0.077678 0.031099 -0.053277 0.153840 -0.142171 0.019238 -0.234994 0.027315 0.101364 0.065531 0.069475 -0.159037 -0.015635 -0.113747 0.040995 -0.059106 -0.065866 0.043670 0.010606 -0.106138 0.031560 -0.068126 0.024461 0.027067 -0.102060 -0.004920 0.005799 -0.045209 0.038425 0.082625 0.001973 -0.026745 0.124312 -0.036748 0.040717 0.011803 -0.134774 0.041134 0.052828 0.051864 -0.003089 0.107921 0.004562 -0.057173 0.080159 -0.125472 0.117292 0.203305 0.052948 0.050344 0.024175 -0.037333 -0.103369 0.105806 -0.049839 0.076164 -0.064933 -0.013452 0.001611 0.086452 0.001823 0.104581 -0.106352 0.017127 0.009369 0.082759 0.010066 0.110320 -0.016748 0.047005 -0.017579 0.109613 0.067406 0.014760 -0.057781 0.017215 0.218677 0.063660 -0.076101 -0.060824 -0.024940 0.069465 0.032248 -0.083997 0.062444 0.083118 0.025139 -0.102019 0.051264 -0.031911 -0.087101 0.024248 0.082646 -0.027276 -0.116652 -0.059996 -0.030804 0.070792 0.067699 0.068462 -0.031079 0.097415 -0.069485 -0.079974 0.068304 -0.013348 0.008886 -0.049509 -0.071224 0.054153 0.183461 0.033179 0.059243 -0.020335 -0.023522 -0.076699 -0.056850 0.155827 -0.100818 0.003924 -0.178468 0.013002 -0.039506 -0.115250 -0.065895 -0.077448 0.102569 -0.018742 0.047815 -0.082617 0.042968 -0.212258 -0.048543 0.009179 -0.054441 0.036272 -0.021340 0.073415 -0.018903 -0.037612 -0.077541 0.000719 -0.068720 0.089083 0.036790 -0.024755 -0.100280 -0.018196 0.068863 -0.047168 -0.033949 -0.053773 -0.002812 0.045690 -0.019686 -0.003574 0.020901 -0.030376 0.054541 0.010316 0.004514 -0.059794 0.225782 0.002036 0.038927 0.077979 -0.006932 -0.014751 0.035477 0.118901 0.093271 -0.008693 -0.051413 0.032060 0.053771 0.102804 0.074808 -0.177792 0.067407 0.068069 0.021491 
http://dbpedia.org/resource/Apple_Inc._v._Pepper 0.000667 0.005532 0.006240 0.010913 0.009079 0.003123 -0.013453 -0.015012 -0.000521 -0.002255 0.020703 -0.013087 -0.004291 -0.017420 -0.007603 -0.013814 -0.011020 0.028598 -0.006483 -0.010452 0.001342 -0.005308 0.002731 -0.012832 0.003422 -0.016969 0.005823 -0.005375 -0.008117 0.011289 0.006772 0.006258 -0.033241 -0.007727 -0.006657 0.001106 0.004046 0.011897 0.020857 0.026856 -0.019724 0.019779 0.006523 -0.030158 0.012388 0.022247 -0.004606 -0.009434 0.007676 0.007385 0.015591 0.001833 0.006560 0.011808 -0.009562 -0.007600 0.017192 0.016044 -0.016843 0.004196 0.006333 -0.008922 0.014841 0.001826 0.003624 0.013663 0.010974 -0.008869 -0.012325 0.015037 0.005454 -0.010645 0.009347 -0.013345 0.001837 0.008472 -0.028105 -0.017317 -0.020584 0.005397 -0.006560 -0.007719 -0.015912 0.006580 -0.000352 -0.023116 0.020803 -0.008546 0.007088 0.007342 -0.002833 0.012736 0.008107 -0.003056 -0.013720 0.024608 0.014109 -0.004550 -0.000880 -0.014499 0.021842 0.000264 -0.006082 0.009702 -0.001689 -0.022469 -0.001547 0.012934 -0.005703 -0.007872 0.006220 0.033402 0.027066 -0.006460 0.017379 0.018294 0.011622 -0.003185 0.006871 0.000877 0.025853 0.016396 0.011194 -0.002710 0.000389 0.012385 0.014643 -0.023290 0.012163 0.006123 0.017730 -0.010927 -0.018157 -0.008159 -0.011650 -0.009383 0.009788 -0.015257 -0.005404 -0.016446 -0.007186 0.000941 0.006065 0.024370 -0.009679 0.023222 0.014900 0.013867 -0.019016 0.005789 -0.025051 0.000711 -0.005108 -0.014716 0.005802 -0.033521 -0.000318 0.010094 0.003014 -0.006233 0.014008 -0.007655 -0.005910 -0.004342 0.002120 -0.006689 -0.000533 0.002298 0.026074 -0.015882 -0.010161 -0.027078 0.005692 -0.002443 0.002572 -0.006487 -0.003274 -0.010170 -0.013920 0.020470 -0.005681 0.019168 0.022716 -0.006834 -0.000452 0.014513 -0.011256 0.010590 0.014311 -0.006083 -0.020998 0.010726 -0.007902 0.003524 -0.006385 -0.010955 0.007900 -0.014923 -0.009706 -0.006818 
http://dbpedia.org/resource/Apple_Inc._v._Samsung_Electronics_Co. -0.038341 -0.039284 -0.040918 0.018405 0.021354 0.027676 -0.005058 -0.035585 0.032024 0.035440 0.006075 -0.010210 0.027901 -0.015389 0.049469 -0.030344 -0.045585 0.009146 0.034064 0.010968 -0.015597 -0.011338 0.043899 -0.001578 -0.001138 -0.008569 0.019932 -0.027499 0.018610 0.016472 -0.021718 -0.033605 -0.056871 0.019512 -0.060477 -0.003223 0.008141 0.009026 -0.019256 0.050374 -0.052961 0.070796 0.003220 -0.049721 0.036829 0.063512 -0.030231 0.021303 0.012012 0.033214 0.013495 -0.006211 -0.019259 -0.033197 0.008472 -0.026799 0.019685 0.003879 -0.053185 -0.021983 0.002381 -0.000322 0.031548 0.017026 -0.022971 0.024990 0.050713 -0.008219 -0.018973 0.057733 0.006053 -0.004172 0.032273 -0.044947 0.027830 -0.010330 -0.085136 -0.048896 -0.074739 0.031415 -0.016655 0.009035 -0.032322 0.012291 0.038990 -0.014187 0.085166 -0.022688 -0.026745 0.045219 0.011405 0.046428 -0.000379 -0.027112 -0.058416 0.070164 0.007316 0.013299 -0.027107 0.009362 0.045031 0.044018 -0.064751 0.027210 -0.023177 -0.001201 0.015453 -0.000567 -0.016310 -0.013461 0.026496 -0.003504 0.008844 -0.025066 0.014099 0.054053 0.037589 0.006289 0.011926 -0.038662 0.045116 0.048577 0.027907 0.005019 0.027948 -0.005516 0.065365 -0.096617 0.067492 -0.011076 0.022358 -0.028835 -0.021998 -0.043686 -0.036533 0.027103 0.062826 -0.050278 -0.006202 -0.060070 0.006488 0.015155 -0.035064 0.000144 -0.067908 0.005581 0.027957 0.061077 -0.052997 -0.044359 -0.046287 0.034370 -0.000088 -0.028986 -0.000577 -0.080688 0.024217 0.039109 -0.016946 -0.029134 0.023410 0.029040 -0.013353 0.000079 -0.038355 -0.036907 0.001026 0.024654 0.041708 -0.067448 -0.049083 -0.062153 0.009552 0.039820 -0.010616 -0.045219 0.037191 -0.037310 -0.027308 0.022165 -0.008563 0.099226 0.066166 -0.000094 0.009106 0.011517 0.001070 0.010131 0.061242 -0.014033 -0.077093 0.003524 -0.046354 0.046327 0.011108 -0.013240 -0.013464 -0.060368 -0.050526 -0.059405 
http://dbpedia.org/resource/Germany -1.389674 -0.126539 -0.498384 0.495338 -1.865216 0.237715 -0.633774 0.212350 -0.183783 0.478665 0.939015 0.598560 0.035316 -0.145426 0.146949 0.389854 -1.398504 0.084801 -0.417163 -0.237427 -0.264820 0.479777 1.414552 0.586835 -0.098106 -0.629337 -1.316980 -0.349836 -1.128690 -0.800221 -1.386317 -0.245097 -0.848307 0.535996 1.260496 -1.126401 1.353484 -0.245625 1.318931 0.771777 0.577034 -0.537758 -0.186014 -0.351706 -0.965866 0.587488 -0.299406 -0.581531 -1.031567 0.157633 0.525707 -1.421270 0.007281 0.853590 -0.040801 0.035530 -1.893353 1.546150 -0.496529 -1.028420 0.675514 -0.127737 -0.018355 1.127915 -0.324910 0.388554 1.166940 -0.371195 -0.615256 0.012358 1.356127 0.709214 0.353598 -0.042233 -0.279523 0.005036 -1.276310 0.820828 -1.446664 1.123348 -0.787211 -0.104808 -1.271560 -0.312923 -0.958494 -1.049865 -0.070268 -0.125690 0.361999 -0.536350 1.471508 1.956960 0.094128 -0.727983 0.677010 -0.810475 0.721126 -0.297237 -0.025504 -0.786834 0.710954 -0.062142 -1.416536 1.422490 0.203711 0.189720 -0.190248 0.763945 0.295210 0.397444 0.170244 -0.192275 0.525575 0.177072 -0.361669 -0.242129 -0.301219 0.363452 0.888706 -0.565234 0.166958 0.261575 -0.850000 -0.622201 -0.468863 0.027467 -0.588918 0.264931 0.154539 0.463168 -0.042473 -0.559867 -1.205623 -0.751080 -1.527251 -0.291630 0.536661 0.220497 -0.552636 -1.431525 1.518958 1.250756 -0.078890 -0.065289 -0.535157 -0.359381 -0.066012 0.421980 -0.480765 -0.363702 1.124108 -1.494788 -0.338116 0.046574 0.031455 -1.207613 0.206462 0.157713 -0.922734 -0.108222 0.653452 -1.144521 -0.584597 0.185397 0.910012 0.543685 0.009376 -0.255345 1.477087 -0.930194 0.402834 -0.582554 0.171188 -0.444252 0.681321 0.087992 0.656171 0.607080 -0.154854 -0.680348 -0.883401 0.576228 -0.420618 0.228798 -0.115908 -0.234968 1.074286 0.129017 1.446633 0.200342 -0.309823 -0.955398 -0.008958 -0.176061 1.066150 0.565395 -0.614281 0.393749 1.286154 -0.104431
http://dbpedia.org/resource/Angela_Merkel -0.734940 -0.227163 0.121732 0.353195 0.348800 0.462023 -0.967464 -0.189558 -0.924431 -0.902736 0.483149 -0.027400 0.267644 0.219893 -0.536166 -0.961303 0.249516 0.349333 -0.609011 0.443867 0.398915 -0.618927 1.219803 -0.777798 -1.139739 -0.465522 0.302893 -0.017448 -0.726523 -0.778150 -0.049862 -0.564071 -1.423206 -0.736410 0.749485 -0.074281 0.762254 -0.494975 0.612357 0.607184 0.123164 0.066737 0.379788 -0.130028 0.068214 0.861292 -0.657245 -0.128435 0.257896 0.909495 1.466565 -0.259522 0.602385 1.128344 -0.366535 -0.256567 -0.058573 1.185135 0.369348 -0.075017 -0.012802 -0.747708 -0.149479 0.296395 0.206541 0.746329 0.806580 0.710388 -0.892049 -0.418651 1.491086 -0.494706 0.765988 -1.570048 -0.714510 0.099396 -0.946878 0.910126 0.446088 0.663622 -1.159303 -0.461625 -0.237931 0.569298 -0.514611 -0.403817 0.228323 0.721405 0.188127 -0.179803 0.696073 0.157342 1.177864 -0.987232 0.037284 1.191065 0.927495 -1.073023 0.178446 -0.853755 0.790699 0.585162 -0.341410 0.523999 -0.135918 0.255465 0.842512 -0.545280 -0.125267 0.323428 -0.243210 1.370219 0.208805 -0.940174 0.638601 -0.352100 -0.165238 0.250552 -0.079248 0.177288 -0.592412 1.181544 -1.310842 0.542002 -0.802686 0.564808 0.277301 -0.724787 0.718546 0.486632 0.499869 0.400837 -1.286179 -0.547629 0.094472 -0.609155 -0.051665 0.239149 -1.052713 -0.068656 0.880029 -0.411349 -0.249291 0.261304 -1.148229 1.001803 -0.270159 0.441903 -0.903082 -0.532739 -0.222385 0.377618 0.036819 -0.363557 0.167307 -0.611092 -0.133059 0.576139 0.329095 1.483242 0.316123 -1.191962 1.116210 -1.015402 0.399849 -0.203367 -0.373455 -0.918763 1.525227 -0.426544 0.310631 -0.179537 1.377463 -0.388944 0.876501 0.747443 1.280672 0.178722 0.218996 0.454734 0.026146 0.054801 0.148041 -0.603083 -0.134093 0.062234 0.701874 0.945420 1.367919 0.838483 0.053745 -0.815488 -0.683986 -0.759405 0.099784 0.041405 -1.266129 0.062027 0.485236 -0.206137