http://dbpedia.org/resource/Apple_Inc. 0.167421 -1.309456 0.312587 -0.540834 0.511907 -0.268012 -0.668096 -0.018311 0.084785 -0.175847 1.586534 -0.029434 -0.345702 0.767754 -0.601233 1.015866 -0.663794 0.020669 1.025307 -0.293730 -1.047989 -0.851862 0.236833 0.306648 -0.211985 -1.998160 -0.198637 0.878127 0.347954 0.160643 -1.405652 -0.934662 -0.511719 -0.566399 0.549307 0.284808 -0.312687 0.715537 -0.318199 -0.953350 0.738767 0.210010 0.164627 -1.032541 -0.315682 0.647304 -0.318355 0.229268 1.908412 -0.821952 0.365082 0.991345 -0.206187 0.620678 1.011308 -0.727156 0.234543 0.270734 -0.239531 0.424348 -0.207746 0.312593 0.586460 1.367291 -1.100171 0.985827 0.497546 -0.138707 -0.736238 1.338079 -0.031038 0.691151 1.459285 -1.143295 0.727586 -0.005601 -0.042129 -0.049020 0.109858 0.248110 0.870686 -0.640617 0.660211 0.001141 0.116290 -0.660459 1.809466 -0.104350 0.158218 -0.944194 0.984662 0.992286 0.200427 -1.683985 0.047295 0.969179 0.802930 -0.142411 -0.406888 0.131794 0.617825 0.478291 -0.536204 0.485953 0.699384 0.383739 -0.639259 0.476015 0.444585 0.571164 0.626111 0.079863 -0.454131 -0.571136 -0.497316 0.750233 0.724775 0.547149 0.232088 0.558450 0.134191 0.124733 -0.110110 -0.897322 0.778768 0.399078 -0.163967 -0.398734 1.273343 0.869969 0.128558 -0.370794 -1.275984 -0.614686 -0.950147 -0.824645 -0.081875 -0.491506 -0.956615 -1.041211 0.169325 0.578265 -0.053699 -0.475454 0.336731 -0.034142 0.277224 0.641480 -0.940875 0.399099 -0.293885 -0.183022 0.537600 -0.408198 0.262412 -0.448081 0.785457 -0.175719 0.296046 -0.236026 0.144769 0.227471 0.447476 -0.669516 0.774279 0.152933 0.577717 -0.444627 1.080042 -0.538358 0.617702 -0.803944 -0.517577 0.308690 0.089173 -0.201159 -0.392705 1.138303 -0.596843 0.010098 -0.813714 0.376832 -0.280544 0.063438 0.544303 0.142407 -0.588301 0.706972 0.631499 0.234975 -0.686515 0.392471 -0.507135 0.548884 -0.100618 -0.400494 0.018705 -0.638192 0.344403 0.285302 
http://dbpedia.org/resource/Germany -1.389674 -0.126539 -0.498384 0.495338 -1.865216 0.237715 -0.633774 0.212350 -0.183783 0.478665 0.939015 0.598560 0.035316 -0.145426 0.146949 0.389854 -1.398504 0.084801 -0.417163 -0.237427 -0.264820 0.479777 1.414552 0.586835 -0.098106 -0.629337 -1.316980 -0.349836 -1.128690 -0.800221 -1.386317 -0.245097 -0.848307 0.535996 1.260496 -1.126401 1.353484 -0.245625 1.318931 0.771777 0.577034 -0.537758 -0.186014 -0.351706 -0.965866 0.587488 -0.299406 -0.581531 -1.031567 0.157633 0.525707 -1.421270 0.007281 0.853590 -0.040801 0.035530 -1.893353 1.546150 -0.496529 -1.028420 0.675514 -0.127737 -0.018355 1.127915 -0.324910 0.388554 1.166940 -0.371195 -0.615256 0.012358 1.356127 0.709214 0.353598 -0.042233 -0.279523 0.005036 -1.276310 0.820828 -1.446664 1.123348 -0.787211 -0.104808 -1.271560 -0.312923 -0.958494 -1.049865 -0.070268 -0.125690 0.361999 -0.536350 1.471508 1.956960 0.094128 -0.727983 0.677010 -0.810475 0.721126 -0.297237 -0.025504 -0.786834 0.710954 -0.062142 -1.416536 1.422490 0.203711 0.189720 -0.190248 0.763945 0.295210 0.397444 0.170244 -0.192275 0.525575 0.177072 -0.361669 -0.242129 -0.301219 0.363452 0.888706 -0.565234 0.166958 0.261575 -0.850000 -0.622201 -0.468863 0.027467 -0.588918 0.264931 0.154539 0.463168 -0.042473 -0.559867 -1.205623 -0.751080 -1.527251 -0.291630 0.536661 0.220497 -0.552636 -1.431525 1.518958 1.250756 -0.078890 -0.065289 -0.535157 -0.359381 -0.066012 0.421980 -0.480765 -0.363702 1.124108 -1.494788 -0.338116 0.046574 0.031455 -1.207613 0.206462 0.157713 -0.922734 -0.108222 0.653452 -1.144521 -0.584597 0.185397 0.910012 0.543685 0.009376 -0.255345 1.477087 -0.930194 0.402834 -0.582554 0.171188 -0.444252 0.681321 0.087992 0.656171 0.607080 -0.154854 -0.680348 -0.883401 0.576228 -0.420618 0.228798 -0.115908 -0.234968 1.074286 0.129017 1.446633 0.200342 -0.309823 -0.955398 -0.008958 -0.176061 1.066150 0.565395 -0.614281 0.393749 1.286154 -0.104431
http://dbpedia.org/resource/Angela_Merkel -0.734940 -0.227163 0.121732 0.353195 0.348800 0.462023 -0.967464 -0.189558 -0.924431 -0.902736 0.483149 -0.027400 0.267644 0.219893 -0.536166 -0.961303 0.249516 0.349333 -0.609011 0.443867 0.398915 -0.618927 1.219803 -0.777798 -1.139739 -0.465522 0.302893 -0.017448 -0.726523 -0.778150 -0.049862 -0.564071 -1.423206 -0.736410 0.749485 -0.074281 0.762254 -0.494975 0.612357 0.607184 0.123164 0.066737 0.379788 -0.130028 0.068214 0.861292 -0.657245 -0.128435 0.257896 0.909495 1.466565 -0.259522 0.602385 1.128344 -0.366535 -0.256567 -0.058573 1.185135 0.369348 -0.075017 -0.012802 -0.747708 -0.149479 0.296395 0.206541 0.746329 0.806580 0.710388 -0.892049 -0.418651 1.491086 -0.494706 0.765988 -1.570048 -0.714510 0.099396 -0.946878 0.910126 0.446088 0.663622 -1.159303 -0.461625 -0.237931 0.569298 -0.514611 -0.403817 0.228323 0.721405 0.188127 -0.179803 0.696073 0.157342 1.177864 -0.987232 0.037284 1.191065 0.927495 -1.073023 0.178446 -0.853755 0.790699 0.585162 -0.341410 0.523999 -0.135918 0.255465 0.842512 -0.545280 -0.125267 0.323428 -0.243210 1.370219 0.208805 -0.940174 0.638601 -0.352100 -0.165238 0.250552 -0.079248 0.177288 -0.592412 1.181544 -1.310842 0.542002 -0.802686 0.564808 0.277301 -0.724787 0.718546 0.486632 0.499869 0.400837 -1.286179 -0.547629 0.094472 -0.609155 -0.051665 0.239149 -1.052713 -0.068656 0.880029 -0.411349 -0.249291 0.261304 -1.148229 1.001803 -0.270159 0.441903 -0.903082 -0.532739 -0.222385 0.377618 0.036819 -0.363557 0.167307 -0.611092 -0.133059 0.576139 0.329095 1.483242 0.316123 -1.191962 1.116210 -1.015402 0.399849 -0.203367 -0.373455 -0.918763 1.525227 -0.426544 0.310631 -0.179537 1.377463 -0.388944 0.876501 0.747443 1.280672 0.178722 0.218996 0.454734 0.026146 0.054801 0.148041 -0.603083 -0.134093 0.062234 0.701874 0.945420 1.367919 0.838483 0.053745 -0.815488 -0.683986 -0.759405 0.099784 0.041405 -1.266129 0.062027 0.485236 -0.206137